genomestart  86
trait 1 1.0870744710917954 0.3326476786863388 0.0 0.46646846772441053 0.0 0.1752790415140506 0.06880567206787291 0.0 
node 1 1 1 1
node 2 1 1 1
node 3 1 1 1
node 4 1 1 1
node 5 1 1 1
node 6 1 1 1
node 7 1 1 1
node 8 1 1 1
node 9 1 1 1
node 10 1 1 1
node 11 1 1 1
node 12 1 1 1
node 13 1 1 1
node 14 1 1 1
node 15 1 1 1
node 16 1 1 1
node 17 1 1 1
node 18 1 1 1
node 19 1 1 1
node 20 1 1 1
node 21 1 1 1
node 22 1 1 1
node 23 1 1 1
node 24 1 1 3
node 50 1 0 2
node 53 1 0 0
node 73 1 0 0
node 78 1 0 0
node 95 1 0 0
node 101 1 0 0
node 104 1 0 0
node 144 1 0 0
node 198 1 0 0
node 297 1 0 0
node 328 1 0 0
node 345 1 0 0
node 370 1 0 0
gene  1 1 50 0.2701437877836588 0 2450.0 0.2701437877836588 1
gene  1 2 50 -0.7606179044236048 0 2451.0 -0.7606179044236048 1
gene  1 3 50 -5.630149265265548 0 2452.0 -5.630149265265548 1
gene  1 4 50 -4.133978926990175 0 2453.0 -4.133978926990175 1
gene  1 5 50 7.123747905260972 0 2454.0 7.123747905260972 1
gene  1 6 50 -2.008738180524839 0 2455.0 -2.008738180524839 1
gene  1 7 50 -5.557698230039263 0 2456.0 -5.557698230039263 1
gene  1 8 50 -6.7587489599009505 0 2457.0 -6.7587489599009505 1
gene  1 9 50 2.9277997321254485 0 2458.0 2.9277997321254485 1
gene  1 10 50 -6.178972275032831 0 2459.0 -6.178972275032831 1
gene  1 11 50 3.468299827706187 0 2460.0 3.468299827706187 1
gene  1 12 50 3.979531160172816 0 2461.0 3.979531160172816 1
gene  1 13 50 -7.447948080135176 0 2462.0 -7.447948080135176 1
gene  1 14 50 -7.355021238083492 0 2463.0 -7.355021238083492 1
gene  1 15 50 6.107045813376905 0 2464.0 6.107045813376905 0
gene  1 16 50 -1.8513474992578538 0 2465.0 -1.8513474992578538 1
gene  1 17 50 6.719835321578559 0 2466.0 6.719835321578559 1
gene  1 18 50 -9.893569667732798 0 2467.0 -9.893569667732798 1
gene  1 19 50 -8.616896003168803 0 2468.0 -8.616896003168803 1
gene  1 20 50 -8.824573984628149 0 2469.0 -8.824573984628149 1
gene  1 21 50 -2.0571322747932723 0 2470.0 -2.0571322747932723 1
gene  1 22 50 -1.178186581541964 0 2471.0 -1.178186581541964 1
gene  1 23 50 5.018374158303279 0 2472.0 5.018374158303279 1
gene  1 24 50 -7.2687768090756295 0 2473.0 -7.2687768090756295 1
gene  1 50 50 1.162908401286776 1 2499.0 1.162908401286776 0
gene  1 3 53 -1.135171114462775 0 2504.0 -1.135171114462775 1
gene  1 53 50 -4.315045251103074 0 2505.0 -4.315045251103074 1
gene  1 6 53 -1.3363150958272232 0 2508.0 -1.3363150958272232 1
gene  1 14 53 -8.872068873472799 0 2595.0 -8.872068873472799 1
gene  1 19 53 6.6295606468535215 0 2667.0 6.6295606468535215 1
gene  1 17 73 -13.524705265181982 0 2719.0 -13.524705265181982 1
gene  1 73 50 -19.71264024518592 0 2720.0 -19.71264024518592 1
gene  1 13 73 -13.661209380933157 0 2765.0 -13.661209380933157 1
gene  1 50 78 2.094939979558487 1 2776.0 2.094939979558487 1
gene  1 78 50 2.0352097977484465 0 2777.0 2.0352097977484465 1
gene  1 10 78 1.972962316115129 0 2878.0 1.972962316115129 1
gene  1 10 95 -2.5746267930040974 0 2894.0 -2.5746267930040974 1
gene  1 95 78 -3.7803299767176735 0 2895.0 -3.7803299767176735 1
gene  1 17 78 -6.6627514894361 0 2914.0 -6.6627514894361 1
gene  1 2 101 5.308537354882702 0 2929.0 5.308537354882702 1
gene  1 101 50 2.4680507196927906 0 2930.0 2.4680507196927906 1
gene  1 14 78 4.0771580015529825 0 2944.0 4.0771580015529825 1
gene  1 5 73 0.5366772810223186 0 2970.0 0.5366772810223186 0
gene  1 53 78 2.5399128256124976 0 2986.0 2.5399128256124976 1
gene  1 16 104 -3.2986813813527336 0 3017.0 -3.2986813813527336 1
gene  1 104 50 -17.400571817471036 0 3018.0 -17.400571817471036 1
gene  1 53 95 -3.085028435962667 0 3104.0 -3.085028435962667 1
gene  1 101 104 0.9924176360597579 0 3144.0 0.9924176360597579 1
gene  1 17 104 -5.7165814205901535 0 3276.0 -5.7165814205901535 1
gene  1 101 78 -0.7551239384628202 0 3298.0 -0.7551239384628202 1
gene  1 23 73 0.3129077341313451 0 3386.0 0.3129077341313451 1
gene  1 14 144 9.778801797903604 0 3520.0 9.778801797903604 1
gene  1 144 78 -3.0799303627391925 0 3521.0 -3.0799303627391925 1
gene  1 17 101 1.674792684450792 0 3535.0 1.674792684450792 1
gene  1 22 101 12.452332258516124 0 3563.0 12.452332258516124 1
gene  1 6 144 -6.63007446165824 0 3583.0 -6.63007446165824 1
gene  1 1 95 -4.28391008957802 0 3633.0 -4.28391008957802 0
gene  1 78 104 -8.069630090389918 0 3647.0 -8.069630090389918 1
gene  1 95 104 0.754038115915328 0 3724.0 0.754038115915328 1
gene  1 7 78 -15.09189944212087 0 3826.0 -15.09189944212087 1
gene  1 3 78 2.925817595694811 0 4038.0 2.925817595694811 1
gene  1 2 53 -5.061561310352092 0 4062.0 -5.061561310352092 1
gene  1 101 198 7.259770982407069 0 4097.0 7.259770982407069 1
gene  1 198 78 9.482011614345504 0 4098.0 9.482011614345504 1
gene  1 11 144 -9.23474129793516 0 4112.0 -9.23474129793516 1
gene  1 11 101 -5.749442034631094 0 4133.0 -5.749442034631094 0
gene  1 53 198 2.2083489447151825 0 4148.0 2.2083489447151825 1
gene  1 24 78 -1.057135148163013 0 4184.0 -1.057135148163013 1
gene  1 24 104 -5.025986500084774 0 4207.0 -5.025986500084774 1
gene  1 7 104 -1.250317218562621 0 4229.0 -1.250317218562621 1
gene  1 8 104 -9.103619854908409 0 4322.0 -9.103619854908409 1
gene  1 22 198 -5.90609585020083 0 4390.0 -5.90609585020083 1
gene  1 17 95 -1.184003148695143 0 4414.0 -1.184003148695143 1
gene  1 18 78 -0.04368192435783591 0 4450.0 -0.04368192435783591 1
gene  1 15 95 3.6697633340991374 0 4681.0 3.6697633340991374 1
gene  1 95 198 4.253215816468133 0 4749.0 4.253215816468133 1
gene  1 19 198 -0.3217749869518989 0 4795.0 -0.3217749869518989 1
gene  1 53 144 -0.06684259978074003 0 4813.0 -0.06684259978074003 1
gene  1 144 95 -3.8863144108704697 0 4908.0 -3.8863144108704697 0
gene  1 21 95 -3.42104174352215 0 4938.0 -3.42104174352215 1
gene  1 15 73 2.896741470805442 0 4968.0 2.896741470805442 1
gene  1 18 198 1.591080158673508 0 5016.0 1.591080158673508 1
gene  1 144 50 0.11349898535944458 0 5037.0 0.11349898535944458 1
gene  1 4 95 -0.8376717366855155 0 5129.0 -0.8376717366855155 1
gene  1 17 198 2.7168049585219305 0 5333.0 2.7168049585219305 1
gene  1 95 297 -1.2883715431914575 0 5357.0 -1.2883715431914575 1
gene  1 297 104 1.6507587615908372 0 5358.0 1.6507587615908372 1
gene  1 23 53 4.554908397012721 0 5377.0 4.554908397012721 1
gene  1 8 101 -1.3507849136575212 0 5630.0 -1.3507849136575212 1
gene  1 144 328 3.488492268483173 0 5736.0 3.488492268483173 1
gene  1 328 95 9.130557609234152 0 5737.0 9.130557609234152 1
gene  1 9 328 7.141085610270104 0 5759.0 7.141085610270104 1
gene  1 2 95 2.4640799855041995 0 5859.0 2.4640799855041995 1
gene  1 5 328 -1.5607550758274593 0 5880.0 -1.5607550758274593 0
gene  1 5 345 0.17313583546325173 0 5901.0 0.17313583546325173 1
gene  1 345 328 -8.745415547739556 0 5902.0 -8.745415547739556 1
gene  1 16 345 2.54825459284877 0 5975.0 2.54825459284877 1
gene  1 13 345 -0.15033481910820268 0 5994.0 -0.15033481910820268 1
gene  1 24 53 -2.3853759099893352 0 6068.0 -2.3853759099893352 1
gene  1 11 370 2.6468698496128127 0 6172.0 2.6468698496128127 1
gene  1 370 101 -2.427333446789344 0 6173.0 -2.427333446789344 1
gene  1 1 78 -6.221689980704632 0 6200.0 -6.221689980704632 1
gene  1 73 53 -2.6463219913442937 0 6244.0 -2.6463219913442937 1
genomeend 86
